{"learner":{"attributes":{"scikit_learn":"{\"_estimator_type\": \"regressor\"}"},"feature_names":["BAROMETER_Pressure__sum_values","BAROMETER_Pressure__median","BAROMETER_Pressure__mean","BAROMETER_Pressure__length","BAROMETER_Pressure__standard_deviation","BAROMETER_Pressure__variance","BAROMETER_Pressure__root_mean_square","BAROMETER_Pressure__maximum","BAROMETER_Pressure__absolute_maximum","BAROMETER_Pressure__minimum","PHOTOPLETHYSMOGRAPHY_RED__sum_values","PHOTOPLETHYSMOGRAPHY_RED__median","PHOTOPLETHYSMOGRAPHY_RED__mean","PHOTOPLETHYSMOGRAPHY_RED__length","PHOTOPLETHYSMOGRAPHY_RED__standard_deviation","PHOTOPLETHYSMOGRAPHY_RED__variance","PHOTOPLETHYSMOGRAPHY_RED__root_mean_square","PHOTOPLETHYSMOGRAPHY_RED__maximum","PHOTOPLETHYSMOGRAPHY_RED__absolute_maximum","PHOTOPLETHYSMOGRAPHY_RED__minimum","PHOTOPLETHYSMOGRAPHY_IR__sum_values","PHOTOPLETHYSMOGRAPHY_IR__median","PHOTOPLETHYSMOGRAPHY_IR__mean","PHOTOPLETHYSMOGRAPHY_IR__length","PHOTOPLETHYSMOGRAPHY_IR__standard_deviation","PHOTOPLETHYSMOGRAPHY_IR__variance","PHOTOPLETHYSMOGRAPHY_IR__root_mean_square","PHOTOPLETHYSMOGRAPHY_IR__maximum","PHOTOPLETHYSMOGRAPHY_IR__absolute_maximum","PHOTOPLETHYSMOGRAPHY_IR__minimum","PHOTOPLETHYSMOGRAPHY_GREEN__sum_values","PHOTOPLETHYSMOGRAPHY_GREEN__median","PHOTOPLETHYSMOGRAPHY_GREEN__mean","PHOTOPLETHYSMOGRAPHY_GREEN__length","PHOTOPLETHYSMOGRAPHY_GREEN__standard_deviation","PHOTOPLETHYSMOGRAPHY_GREEN__variance","PHOTOPLETHYSMOGRAPHY_GREEN__root_mean_square","PHOTOPLETHYSMOGRAPHY_GREEN__maximum","PHOTOPLETHYSMOGRAPHY_GREEN__absolute_maximum","PHOTOPLETHYSMOGRAPHY_GREEN__minimum","PHOTOPLETHYSMOGRAPHY_AMBIENT__sum_values","PHOTOPLETHYSMOGRAPHY_AMBIENT__median","PHOTOPLETHYSMOGRAPHY_AMBIENT__mean","PHOTOPLETHYSMOGRAPHY_AMBIENT__length","PHOTOPLETHYSMOGRAPHY_AMBIENT__standard_deviation","PHOTOPLETHYSMOGRAPHY_AMBIENT__variance","PHOTOPLETHYSMOGRAPHY_AMBIENT__root_mean_square","PHOTOPLETHYSMOGRAPHY_AMBIENT__maximum","PHOTOPLETHYSMOGRAPHY_AMBIENT__absolute_maximum","PHOTOPLETHYSMOGRAPHY_AMBIENT__minimum","ACCELEROMETER_1_X__sum_values","ACCELEROMETER_1_X__median","ACCELEROMETER_1_X__mean","ACCELEROMETER_1_X__length","ACCELEROMETER_1_X__standard_deviation","ACCELEROMETER_1_X__variance","ACCELEROMETER_1_X__root_mean_square","ACCELEROMETER_1_X__maximum","ACCELEROMETER_1_X__absolute_maximum","ACCELEROMETER_1_X__minimum","ACCELEROMETER_1_Y__sum_values","ACCELEROMETER_1_Y__median","ACCELEROMETER_1_Y__mean","ACCELEROMETER_1_Y__length","ACCELEROMETER_1_Y__standard_deviation","ACCELEROMETER_1_Y__variance","ACCELEROMETER_1_Y__root_mean_square","ACCELEROMETER_1_Y__maximum","ACCELEROMETER_1_Y__absolute_maximum","ACCELEROMETER_1_Y__minimum","ACCELEROMETER_1_Z__sum_values","ACCELEROMETER_1_Z__median","ACCELEROMETER_1_Z__mean","ACCELEROMETER_1_Z__length","ACCELEROMETER_1_Z__standard_deviation","ACCELEROMETER_1_Z__variance","ACCELEROMETER_1_Z__root_mean_square","ACCELEROMETER_1_Z__maximum","ACCELEROMETER_1_Z__absolute_maximum","ACCELEROMETER_1_Z__minimum","GYROSCOPE_X__sum_values","GYROSCOPE_X__median","GYROSCOPE_X__mean","GYROSCOPE_X__length","GYROSCOPE_X__standard_deviation","GYROSCOPE_X__variance","GYROSCOPE_X__root_mean_square","GYROSCOPE_X__maximum","GYROSCOPE_X__absolute_maximum","GYROSCOPE_X__minimum","GYROSCOPE_Y__sum_values","GYROSCOPE_Y__median","GYROSCOPE_Y__mean","GYROSCOPE_Y__length","GYROSCOPE_Y__standard_deviation","GYROSCOPE_Y__variance","GYROSCOPE_Y__root_mean_square","GYROSCOPE_Y__maximum","GYROSCOPE_Y__absolute_maximum","GYROSCOPE_Y__minimum","GYROSCOPE_Z__sum_values","GYROSCOPE_Z__median","GYROSCOPE_Z__mean","GYROSCOPE_Z__length","GYROSCOPE_Z__standard_deviation","GYROSCOPE_Z__variance","GYROSCOPE_Z__root_mean_square","GYROSCOPE_Z__maximum","GYROSCOPE_Z__absolute_maximum","GYROSCOPE_Z__minimum","ACCELEROMETER_X__sum_values","ACCELEROMETER_X__median","ACCELEROMETER_X__mean","ACCELEROMETER_X__length","ACCELEROMETER_X__standard_deviation","ACCELEROMETER_X__variance","ACCELEROMETER_X__root_mean_square","ACCELEROMETER_X__maximum","ACCELEROMETER_X__absolute_maximum","ACCELEROMETER_X__minimum","ACCELEROMETER_Y__sum_values","ACCELEROMETER_Y__median","ACCELEROMETER_Y__mean","ACCELEROMETER_Y__length","ACCELEROMETER_Y__standard_deviation","ACCELEROMETER_Y__variance","ACCELEROMETER_Y__root_mean_square","ACCELEROMETER_Y__maximum","ACCELEROMETER_Y__absolute_maximum","ACCELEROMETER_Y__minimum","ACCELEROMETER_Z__sum_values","ACCELEROMETER_Z__median","ACCELEROMETER_Z__mean","ACCELEROMETER_Z__length","ACCELEROMETER_Z__standard_deviation","ACCELEROMETER_Z__variance","ACCELEROMETER_Z__root_mean_square","ACCELEROMETER_Z__maximum","ACCELEROMETER_Z__absolute_maximum","ACCELEROMETER_Z__minimum"],"feature_types":["float","float","float","float","float","float","float","float","float","float","float","float","float","float","float","float","float","float","float","float","float","float","float","float","float","float","float","float","float","float","float","float","float","float","float","float","float","float","float","float","float","float","float","float","float","float","float","float","float","float","float","float","float","float","float","float","float","float","float","float","float","float","float","float","float","float","float","float","float","float","float","float","float","float","float","float","float","float","float","float","float","float","float","float","float","float","float","float","float","float","float","float","float","float","float","float","float","float","float","float","float","float","float","float","float","float","float","float","float","float","float","float","float","float","float","float","float","float","float","float","float","float","float","float","float","float","float","float","float","float","float","float","float","float","float","float","float","float","float","float"],"gradient_booster":{"model":{"cats":{"enc":[],"feature_segments":[],"sorted_idx":[]},"gbtree_model_param":{"num_parallel_tree":"1","num_trees":"50"},"iteration_indptr":[0,1,2,3,4,5,6,7,8,9,10,11,12,13,14,15,16,17,18,19,20,21,22,23,24,25,26,27,28,29,30,31,32,33,34,35,36,37,38,39,40,41,42,43,44,45,46,47,48,49,50],"tree_info":[0,0,0,0,0,0,0,0,0,0,0,0,0,0,0,0,0,0,0,0,0,0,0,0,0,0,0,0,0,0,0,0,0,0,0,0,0,0,0,0,0,0,0,0,0,0,0,0,0,0],"trees":[{"base_weights":[7.5E-2,-1.2E0,1.125E0,-7.1875E-2,-6.25E-3,6.5625004E-2,2.5E-2],"categories":[],"categories_nodes":[],"categories_segments":[],"categories_sizes":[],"default_left":[0,0,0,0,0,0,0],"id":0,"left_children":[1,3,5,-1,-1,-1,-1],"loss_changes":[1.47375E1,1.0968752E0,4.6875E-2,0E0,0E0,0E0,0E0],"parents":[2147483647,0,0,1,1,2,2],"right_children":[2,4,6,-1,-1,-1,-1],"split_conditions":[1.6686554E8,1.5817096E8,2.851669E3,-7.1875E-2,-6.25E-3,6.5625004E-2,2.5E-2],"split_indices":[0,0,64,0,0,0,0],"split_type":[0,0,0,0,0,0,0],"sum_hessian":[9E0,4E0,5E0,3E0,1E0,3E0,2E0],"tree_param":{"num_deleted":"0","num_feature":"140","num_nodes":"7","size_leaf_vector":"1"}},{"base_weights":[4.3750003E-2,-1.0036458E0,1.0838542E0,-6.9179684E-2,-8.125003E-3,6.316407E-2,2.4166664E-2],"categories":[],"categories_nodes":[],"categories_segments":[],"categories_sizes":[],"default_left":[0,0,0,0,0,0,0],"id":1,"left_children":[1,3,5,-1,-1,-1,-1],"loss_changes":[1.3071214E1,1.6927152E0,3.5912514E-2,0E0,0E0,0E0,0E0],"parents":[2147483647,0,0,1,1,2,2],"right_children":[2,4,6,-1,-1,-1,-1],"split_conditions":[1.6686554E8,1.5817096E8,2.851669E3,-6.9179684E-2,-8.125003E-3,6.316407E-2,2.4166664E-2],"split_indices":[0,0,64,0,0,0,0],"split_type":[0,0,0,0,0,0,0],"sum_hessian":[1E1,5E0,5E0,3E0,2E0,3E0,2E0],"tree_param":{"num_deleted":"0","num_feature":"140","num_nodes":"7","size_leaf_vector":"1"}},{"base_weights":[2.2427668E-1,-5.378281E-1,4.7076304E-2,-3.6964837E-2,-7.854167E-3],"categories":[],"categories_nodes":[],"categories_segments":[],"categories_sizes":[],"default_left":[0,0,0,0,0],"id":2,"left_children":[1,3,-1,-1,-1],"loss_changes":[5.425952E0,2.6740944E-1,0E0,0E0,0E0],"parents":[2147483647,0,0,1,1],"right_children":[2,4,-1,-1,-1],"split_conditions":[2.266736E0,1.5817096E8,4.7076304E-2,-3.6964837E-2,-7.854167E-3],"split_indices":[104,0,0,0,0],"split_type":[0,0,0,0,0],"sum_hessian":[8E0,4E0,4E0,2E0,2E0],"tree_param":{"num_deleted":"0","num_feature":"140","num_nodes":"5","size_leaf_vector":"1"}},{"base_weights":[8.964459E-2,-9.4524705E-1,9.638882E-1,-6.5199256E-2,-7.59236E-3,5.9030056E-2,2.5310162E-2],"categories":[],"categories_nodes":[],"categories_segments":[],"categories_sizes":[],"default_left":[0,0,0,0,0,0,0],"id":3,"left_children":[1,3,5,-1,-1,-1,-1],"loss_changes":[1.1768082E1,1.5097303E0,9.667921E-2,0E0,0E0,0E0,0E0],"parents":[2147483647,0,0,1,1,2,2],"right_children":[2,4,6,-1,-1,-1,-1],"split_conditions":[2.266736E0,1.5787205E8,-4.6212185E1,-6.5199256E-2,-7.59236E-3,5.9030056E-2,2.5310162E-2],"split_indices":[104,0,99,0,0,0,0],"split_type":[0,0,0,0,0,0,0],"sum_hessian":[1.1E1,5E0,6E0,3E0,2E0,3E0,3E0],"tree_param":{"num_deleted":"0","num_feature":"140","num_nodes":"7","size_leaf_vector":"1"}},{"base_weights":[3.1046174E-2,-9.101167E-1,9.6703464E-1,-6.2754296E-2,-7.3392787E-3,5.681643E-2,2.0948227E-2],"categories":[],"categories_nodes":[],"categories_segments":[],"categories_sizes":[],"default_left":[0,0,0,0,0,0,0],"id":4,"left_children":[1,3,5,-1,-1,-1,-1],"loss_changes":[1.0570208E1,1.3957257E0,8.062744E-2,0E0,0E0,0E0,0E0],"parents":[2147483647,0,0,1,1,2,2],"right_children":[2,4,6,-1,-1,-1,-1],"split_conditions":[1.6686554E8,1.5787205E8,2.851669E3,-6.2754296E-2,-7.3392787E-3,5.681643E-2,2.0948227E-2],"split_indices":[0,0,64,0,0,0,0],"split_type":[0,0,0,0,0,0,0],"sum_hessian":[1E1,5E0,5E0,3E0,2E0,3E0,2E0],"tree_param":{"num_deleted":"0","num_feature":"140","num_nodes":"7","size_leaf_vector":"1"}},{"base_weights":[2.602215E-1,-6.853507E-1,8.9845574E-1,-5.0017923E-2,-7.0946375E-3,5.468582E-2,2.3929063E-2],"categories":[],"categories_nodes":[],"categories_segments":[],"categories_sizes":[],"default_left":[0,0,0,0,0,0,0],"id":5,"left_children":[1,3,5,-1,-1,-1,-1],"loss_changes":[7.25422E0,7.140238E-1,5.0462723E-2,0E0,0E0,0E0,0E0],"parents":[2147483647,0,0,1,1,2,2],"right_children":[2,4,6,-1,-1,-1,-1],"split_conditions":[2.266736E0,1.5817096E8,-4.6212185E1,-5.0017923E-2,-7.0946375E-3,5.468582E-2,2.3929063E-2],"split_indices":[104,0,99,0,0,0,0],"split_type":[0,0,0,0,0,0,0],"sum_hessian":[1E1,4E0,6E0,2E0,2E0,3E0,3E0],"tree_param":{"num_deleted":"0","num_feature":"140","num_nodes":"7","size_leaf_vector":"1"}},{"base_weights":[1.3211966E-2,-9.82467E-1,8.647636E-1,-5.6890573E-2,-5.1436126E-3,5.26351E-2,2.303172E-2],"categories":[],"categories_nodes":[],"categories_segments":[],"categories_sizes":[],"default_left":[0,0,0,0,0,0,0],"id":6,"left_children":[1,3,5,-1,-1,-1,-1],"loss_changes":[1.1024067E1,7.027917E-1,4.674864E-2,0E0,0E0,0E0,0E0],"parents":[2147483647,0,0,1,1,2,2],"right_children":[2,4,6,-1,-1,-1,-1],"split_conditions":[1.608722E8,1.5817096E8,-4.6212185E1,-5.6890573E-2,-5.1436126E-3,5.26351E-2,2.303172E-2],"split_indices":[0,0,99,0,0,0,0],"split_type":[0,0,0,0,0,0,0],"sum_hessian":[1.1E1,5E0,6E0,4E0,1E0,3E0,3E0],"tree_param":{"num_deleted":"0","num_feature":"140","num_nodes":"7","size_leaf_vector":"1"}},{"base_weights":[-3.997498E-3,-5.6391936E-2,3.7294813E-2],"categories":[],"categories_nodes":[],"categories_segments":[],"categories_sizes":[],"default_left":[0,0,0],"id":7,"left_children":[1,-1,-1],"loss_changes":[8.426104E0,0E0,0E0],"parents":[2147483647,0,0],"right_children":[2,-1,-1],"split_conditions":[1.5787205E8,-5.6391936E-2,3.7294813E-2],"split_indices":[0,0,0],"split_type":[0,0,0],"sum_hessian":[8E0,3E0,5E0],"tree_param":{"num_deleted":"0","num_feature":"140","num_nodes":"3","size_leaf_vector":"1"}},{"base_weights":[1.3722654E-1,-3.7285045E-1,3.0649845E-2,-2.4685875E-2,-8.399447E-3],"categories":[],"categories_nodes":[],"categories_segments":[],"categories_sizes":[],"default_left":[0,0,0,0,0],"id":8,"left_children":[1,3,-1,-1,-1],"loss_changes":[1.9273129E0,1.6104937E-2,0E0,0E0,0E0],"parents":[2147483647,0,0,1,1],"right_children":[2,4,-1,-1,-1],"split_conditions":[3.297E3,1.5817096E8,3.0649845E-2,-2.4685875E-2,-8.399447E-3],"split_indices":[57,0,0,0,0],"split_type":[0,0,0,0,0],"sum_hessian":[6E0,3E0,3E0,1E0,2E0],"tree_param":{"num_deleted":"0","num_feature":"140","num_nodes":"5","size_leaf_vector":"1"}},{"base_weights":[2.6326373E-1,-7.0627207E-1,7.7967507E-1,-4.279028E-2,-6.44179E-3,4.8601467E-2,1.9620104E-2],"categories":[],"categories_nodes":[],"categories_segments":[],"categories_sizes":[],"default_left":[0,0,0,0,0,0,0],"id":9,"left_children":[1,3,5,-1,-1,-1,-1],"loss_changes":[5.557455E0,2.3512602E-1,1.4002943E-1,0E0,0E0,0E0,0E0],"parents":[2147483647,0,0,1,1,2,2],"right_children":[2,4,6,-1,-1,-1,-1],"split_conditions":[1.5847E4,1.5199646E8,-4.6212185E1,-4.279028E-2,-6.44179E-3,4.8601467E-2,1.9620104E-2],"split_indices":[58,0,99,0,0,0,0],"split_type":[0,0,0,0,0,0,0],"sum_hessian":[9E0,3E0,6E0,2E0,1E0,3E0,3E0],"tree_param":{"num_deleted":"0","num_feature":"140","num_nodes":"7","size_leaf_vector":"1"}},{"base_weights":[1.0737578E-1,-6.6075855E-1,7.5043726E-1,-4.3302566E-2,-8.339103E-3,4.6778914E-2,1.8884346E-2],"categories":[],"categories_nodes":[],"categories_segments":[],"categories_sizes":[],"default_left":[0,0,0,0,0,0,0],"id":10,"left_children":[1,3,5,-1,-1,-1,-1],"loss_changes":[6.4233494E0,4.6401668E-1,1.2972379E-1,0E0,0E0,0E0,0E0],"parents":[2147483647,0,0,1,1,2,2],"right_children":[2,4,6,-1,-1,-1,-1],"split_conditions":[2.266736E0,1.5817096E8,-4.6212185E1,-4.3302566E-2,-8.339103E-3,4.6778914E-2,1.8884346E-2],"split_indices":[104,0,99,0,0,0,0],"split_type":[0,0,0,0,0,0,0],"sum_hessian":[1.1E1,5E0,6E0,3E0,2E0,3E0,3E0],"tree_param":{"num_deleted":"0","num_feature":"140","num_nodes":"7","size_leaf_vector":"1"}},{"base_weights":[-7.6856606E-2,-7.891802E-1,7.6699704E-1,-5.040594E-2,-8.061131E-3,1.6666766E-2,4.5024704E-2],"categories":[],"categories_nodes":[],"categories_segments":[],"categories_sizes":[],"default_left":[0,0,0,0,0,0,0],"id":11,"left_children":[1,3,5,-1,-1,-1,-1],"loss_changes":[7.8184614E0,7.998576E-1,4.718876E-2,0E0,0E0,0E0,0E0],"parents":[2147483647,0,0,1,1,2,2],"right_children":[2,4,6,-1,-1,-1,-1],"split_conditions":[2.266736E0,1.5817096E8,1.7233091E8,-5.040594E-2,-8.061131E-3,1.6666766E-2,4.5024704E-2],"split_indices":[104,0,0,0,0,0,0],"split_type":[0,0,0,0,0,0,0],"sum_hessian":[1.1E1,6E0,5E0,4E0,2E0,2E0,3E0],"tree_param":{"num_deleted":"0","num_feature":"140","num_nodes":"7","size_leaf_vector":"1"}},{"base_weights":[-8.4692426E-2,-7.7193964E-1,3.083351E-2,-5.2051157E-2,-7.7924253E-3],"categories":[],"categories_nodes":[],"categories_segments":[],"categories_sizes":[],"default_left":[0,0,0,0,0],"id":12,"left_children":[1,3,-1,-1,-1],"loss_changes":[5.7781367E0,8.32438E-1,0E0,0E0,0E0],"parents":[2147483647,0,0,1,1],"right_children":[2,4,-1,-1,-1],"split_conditions":[2.266736E0,1.5817096E8,3.083351E-2,-5.2051157E-2,-7.7924253E-3],"split_indices":[104,0,0,0,0],"split_type":[0,0,0,0,0],"sum_hessian":[1E1,5E0,5E0,3E0,2E0],"tree_param":{"num_deleted":"0","num_feature":"140","num_nodes":"5","size_leaf_vector":"1"}},{"base_weights":[2.4429993E-3,-4.630765E-2,6.6537684E-1,4.2180028E-2,1.604045E-2],"categories":[],"categories_nodes":[],"categories_segments":[],"categories_sizes":[],"default_left":[0,0,0,0,0],"id":13,"left_children":[1,-1,3,-1,-1],"loss_changes":[7.3878155E0,0E0,1.592362E-1,0E0,0E0],"parents":[2147483647,0,0,2,2],"right_children":[2,-1,4,-1,-1],"split_conditions":[1.5817096E8,-4.630765E-2,-4.6212185E1,4.2180028E-2,1.604045E-2],"split_indices":[0,0,99,0,0],"split_type":[0,0,0,0,0],"sum_hessian":[1E1,4E0,6E0,3E0,3E0],"tree_param":{"num_deleted":"0","num_feature":"140","num_nodes":"5","size_leaf_vector":"1"}},{"base_weights":[5.7141326E-2,-5.620075E-1,6.667666E-1,-3.610004E-2,-8.067361E-3,4.0598273E-2,1.2545626E-2],"categories":[],"categories_nodes":[],"categories_segments":[],"categories_sizes":[],"default_left":[0,0,0,0,0,0,0],"id":14,"left_children":[1,3,5,-1,-1,-1,-1],"loss_changes":[4.526664E0,2.6812482E-1,1.5855718E-1,0E0,0E0,0E0,0E0],"parents":[2147483647,0,0,1,1,2,2],"right_children":[2,4,6,-1,-1,-1,-1],"split_conditions":[1.6686554E8,1.5817096E8,2.851669E3,-3.610004E-2,-8.067361E-3,4.0598273E-2,1.2545626E-2],"split_indices":[0,0,64,0,0,0,0],"split_type":[0,0,0,0,0,0,0],"sum_hessian":[1E1,5E0,5E0,3E0,2E0,3E0,2E0],"tree_param":{"num_deleted":"0","num_feature":"140","num_nodes":"7","size_leaf_vector":"1"}},{"base_weights":[-1.599889E-2,-7.5602406E-1,6.2059397E-1,-4.7008947E-2,-1.2923812E-2,3.907584E-2,1.5226132E-2],"categories":[],"categories_nodes":[],"categories_segments":[],"categories_sizes":[],"default_left":[0,0,0,0,0,0,0],"id":15,"left_children":[1,3,5,-1,-1,-1,-1],"loss_changes":[6.1223207E0,3.06741E-1,1.18052244E-1,0E0,0E0,0E0,0E0],"parents":[2147483647,0,0,1,1,2,2],"right_children":[2,4,6,-1,-1,-1,-1],"split_conditions":[1.7389E4,9.01159E0,-4.6212185E1,-4.7008947E-2,-1.2923812E-2,3.907584E-2,1.5226132E-2],"split_indices":[58,4,99,0,0,0,0],"split_type":[0,0,0,0,0,0,0],"sum_hessian":[1.1E1,5E0,6E0,3E0,2E0,3E0,3E0],"tree_param":{"num_deleted":"0","num_feature":"140","num_nodes":"7","size_leaf_vector":"1"}},{"base_weights":[-3.003497E-2,-4.1471835E-2,6.41139E-1,1.3966568E-2,3.7610497E-2],"categories":[],"categories_nodes":[],"categories_segments":[],"categories_sizes":[],"default_left":[0,0,0,0,0],"id":16,"left_children":[1,-1,3,-1,-1],"loss_changes":[5.8971605E0,0E0,3.1001806E-2,0E0,0E0],"parents":[2147483647,0,0,2,2],"right_children":[2,-1,4,-1,-1],"split_conditions":[1.5817096E8,-4.1471835E-2,1.7233091E8,1.3966568E-2,3.7610497E-2],"split_indices":[0,0,0,0,0],"split_type":[0,0,0,0,0],"sum_hessian":[9E0,4E0,5E0,2E0,3E0],"tree_param":{"num_deleted":"0","num_feature":"140","num_nodes":"5","size_leaf_vector":"1"}},{"base_weights":[-1.7538022E-1,-6.399198E-1,5.1005125E-1,-4.3690916E-2,-1.2302066E-2,1.0760284E-2,3.174399E-2],"categories":[],"categories_nodes":[],"categories_segments":[],"categories_sizes":[],"default_left":[0,0,0,0,0,0,0],"id":17,"left_children":[1,3,5,-1,-1,-1,-1],"loss_changes":[3.8289027E0,4.2989755E-1,4.7395945E-2,0E0,0E0,0E0,0E0],"parents":[2147483647,0,0,1,1,2,2],"right_children":[2,4,6,-1,-1,-1,-1],"split_conditions":[1.6686554E8,9.01159E0,2.8462725E1,-4.3690916E-2,-1.2302066E-2,1.0760284E-2,3.174399E-2],"split_indices":[0,4,4,0,0,0,0],"split_type":[0,0,0,0,0,0,0],"sum_hessian":[1E1,6E0,4E0,3E0,3E0,2E0,2E0],"tree_param":{"num_deleted":"0","num_feature":"140","num_nodes":"7","size_leaf_vector":"1"}},{"base_weights":[1.6843694E-1,-5.5876005E-1,5.5991566E-1,-3.3521492E-2,-5.5937706E-3,3.2953136E-2,1.0401607E-2],"categories":[],"categories_nodes":[],"categories_segments":[],"categories_sizes":[],"default_left":[0,0,0,0,0,0,0],"id":18,"left_children":[1,3,5,-1,-1,-1,-1],"loss_changes":[3.1596801E0,1.2460923E-1,1.07111216E-1,0E0,0E0,0E0,0E0],"parents":[2147483647,0,0,1,1,2,2],"right_children":[2,4,6,-1,-1,-1,-1],"split_conditions":[1.0392049E1,1.5817096E8,2.851669E3,-3.3521492E-2,-5.5937706E-3,3.2953136E-2,1.0401607E-2],"split_indices":[4,0,64,0,0,0,0],"split_type":[0,0,0,0,0,0,0],"sum_hessian":[9E0,3E0,6E0,2E0,1E0,4E0,2E0],"tree_param":{"num_deleted":"0","num_feature":"140","num_nodes":"7","size_leaf_vector":"1"}},{"base_weights":[9.3921274E-2,-5.467321E-1,5.3811353E-1,-3.0636504E-2,-7.068509E-3,3.403626E-2,1.3048676E-2],"categories":[],"categories_nodes":[],"categories_segments":[],"categories_sizes":[],"default_left":[0,0,0,0,0,0,0],"id":19,"left_children":[1,3,5,-1,-1,-1,-1],"loss_changes":[3.4245102E0,4.714358E-2,9.9012375E-2,0E0,0E0,0E0,0E0],"parents":[2147483647,0,0,1,1,2,2],"right_children":[2,4,6,-1,-1,-1,-1],"split_conditions":[1.608722E8,1.5817096E8,-4.6212185E1,-3.0636504E-2,-7.068509E-3,3.403626E-2,1.3048676E-2],"split_indices":[0,0,99,0,0,0,0],"split_type":[0,0,0,0,0,0,0],"sum_hessian":[1E1,4E0,6E0,3E0,1E0,3E0,3E0],"tree_param":{"num_deleted":"0","num_feature":"140","num_nodes":"7","size_leaf_vector":"1"}},{"base_weights":[-4.0700078E-2,-5.9352016E-1,5.179343E-1,-3.9646577E-2,-1.2286439E-2,3.0483443E-2,9.619935E-3],"categories":[],"categories_nodes":[],"categories_segments":[],"categories_sizes":[],"default_left":[0,0,0,0,0,0,0],"id":20,"left_children":[1,3,5,-1,-1,-1,-1],"loss_changes":[4.3221207E0,2.9062867E-1,9.174061E-2,0E0,0E0,0E0,0E0],"parents":[2147483647,0,0,1,1,2,2],"right_children":[2,4,6,-1,-1,-1,-1],"split_conditions":[2.266736E0,9.01159E0,2.851669E3,-3.9646577E-2,-1.2286439E-2,3.0483443E-2,9.619935E-3],"split_indices":[104,4,64,0,0,0,0],"split_type":[0,0,0,0,0,0,0],"sum_hessian":[1.2E1,6E0,6E0,3E0,3E0,4E0,2E0],"tree_param":{"num_deleted":"0","num_feature":"140","num_nodes":"7","size_leaf_vector":"1"}},{"base_weights":[4.1162707E-2,-4.4992727E-1,4.435439E-1,-2.9455528E-2,-8.038414E-3,2.629134E-2,9.29927E-3],"categories":[],"categories_nodes":[],"categories_segments":[],"categories_sizes":[],"default_left":[0,0,0,0,0,0,0],"id":21,"left_children":[1,3,5,-1,-1,-1,-1],"loss_changes":[2.1756163E0,1.06520176E-1,2.9359937E-2,0E0,0E0,0E0,0E0],"parents":[2147483647,0,0,1,1,2,2],"right_children":[2,4,6,-1,-1,-1,-1],"split_conditions":[2.266736E0,1.5817096E8,1.0125382E5,-2.9455528E-2,-8.038414E-3,2.629134E-2,9.29927E-3],"split_indices":[104,0,1,0,0,0,0],"split_type":[0,0,0,0,0,0,0],"sum_hessian":[9E0,4E0,5E0,2E0,2E0,3E0,2E0],"tree_param":{"num_deleted":"0","num_feature":"140","num_nodes":"7","size_leaf_vector":"1"}},{"base_weights":[-2.5287735E-1,-5.521347E-1,1.6702116E-2,-1.3892929E-2,-4.1260835E-2],"categories":[],"categories_nodes":[],"categories_segments":[],"categories_sizes":[],"default_left":[0,0,0,0,0],"id":22,"left_children":[1,3,-1,-1,-1],"loss_changes":[1.9408364E0,2.9500556E-1,0E0,0E0,0E0],"parents":[2147483647,0,0,1,1],"right_children":[2,4,-1,-1,-1],"split_conditions":[1.6686554E8,1.01220266E5,1.6702116E-2,-1.3892929E-2,-4.1260835E-2],"split_indices":[0,9,0,0,0],"split_type":[0,0,0,0,0],"sum_hessian":[9E0,6E0,3E0,4E0,2E0],"tree_param":{"num_deleted":"0","num_feature":"140","num_nodes":"5","size_leaf_vector":"1"}},{"base_weights":[-4.6529554E-2,-4.247433E-1,4.1663283E-1,-2.6375223E-2,-7.3073665E-3,8.432555E-3,2.628685E-2],"categories":[],"categories_nodes":[],"categories_segments":[],"categories_sizes":[],"default_left":[0,0,0,0,0,0,0],"id":23,"left_children":[1,3,5,-1,-1,-1,-1],"loss_changes":[1.9287059E0,9.467971E-2,4.6612978E-2,0E0,0E0,0E0,0E0],"parents":[2147483647,0,0,1,1,2,2],"right_children":[2,4,6,-1,-1,-1,-1],"split_conditions":[1.6686554E8,1.5817096E8,2.8462725E1,-2.6375223E-2,-7.3073665E-3,8.432555E-3,2.628685E-2],"split_indices":[0,0,4,0,0,0,0],"split_type":[0,0,0,0,0,0,0],"sum_hessian":[9E0,5E0,4E0,3E0,2E0,2E0,2E0],"tree_param":{"num_deleted":"0","num_feature":"140","num_nodes":"7","size_leaf_vector":"1"}},{"base_weights":[9.574435E-2,-4.368449E-1,4.6248746E-1,-2.4931798E-2,-4.7420147E-3,2.7483243E-2,8.151468E-3],"categories":[],"categories_nodes":[],"categories_segments":[],"categories_sizes":[],"default_left":[0,0,0,0,0,0,0],"id":24,"left_children":[1,3,5,-1,-1,-1,-1],"loss_changes":[2.350593E0,5.837339E-2,9.313023E-2,0E0,0E0,0E0,0E0],"parents":[2147483647,0,0,1,1,2,2],"right_children":[2,4,6,-1,-1,-1,-1],"split_conditions":[1.7389E4,1.5817096E8,2.851669E3,-2.4931798E-2,-4.7420147E-3,2.7483243E-2,8.151468E-3],"split_indices":[58,0,64,0,0,0,0],"split_type":[0,0,0,0,0,0,0],"sum_hessian":[1E1,4E0,6E0,3E0,1E0,4E0,2E0],"tree_param":{"num_deleted":"0","num_feature":"140","num_nodes":"7","size_leaf_vector":"1"}},{"base_weights":[-1.787391E-1,-5.042498E-1,1.5636185E-2,-1.2392342E-2,-3.817524E-2],"categories":[],"categories_nodes":[],"categories_segments":[],"categories_sizes":[],"default_left":[0,0,0,0,0],"id":25,"left_children":[1,3,-1,-1,-1],"loss_changes":[1.9174312E0,2.7608407E-1,0E0,0E0,0E0],"parents":[2147483647,0,0,1,1],"right_children":[2,4,-1,-1,-1],"split_conditions":[2.266736E0,1.01220266E5,1.5636185E-2,-1.2392342E-2,-3.817524E-2],"split_indices":[104,9,0,0,0],"split_type":[0,0,0,0,0],"sum_hessian":[1E1,6E0,4E0,4E0,2E0],"tree_param":{"num_deleted":"0","num_feature":"140","num_nodes":"5","size_leaf_vector":"1"}},{"base_weights":[-1.04466E-1,-5.64021E-1,3.759822E-1,-3.6902733E-2,-1.0099018E-2,7.358543E-3,2.3973307E-2],"categories":[],"categories_nodes":[],"categories_segments":[],"categories_sizes":[],"default_left":[0,0,0,0,0,0,0],"id":26,"left_children":[1,3,5,-1,-1,-1,-1],"loss_changes":[2.1991932E0,1.6596365E-1,4.782796E-2,0E0,0E0,0E0,0E0],"parents":[2147483647,0,0,1,1,2,2],"right_children":[2,4,6,-1,-1,-1,-1],"split_conditions":[1.608722E8,9.01159E0,2.8462725E1,-3.6902733E-2,-1.0099018E-2,7.358543E-3,2.3973307E-2],"split_indices":[0,4,4,0,0,0,0],"split_type":[0,0,0,0,0,0,0],"sum_hessian":[8E0,4E0,4E0,2E0,2E0,2E0,2E0],"tree_param":{"num_deleted":"0","num_feature":"140","num_nodes":"7","size_leaf_vector":"1"}},{"base_weights":[2.231275E-2,-5.3890765E-1,4.1999692E-1,-3.567264E-2,-9.23633E-3,2.7146045E-2,9.603686E-3],"categories":[],"categories_nodes":[],"categories_segments":[],"categories_sizes":[],"default_left":[0,0,0,0,0,0,0],"id":27,"left_children":[1,3,5,-1,-1,-1,-1],"loss_changes":[2.6814127E0,1.7730916E-1,9.183967E-2,0E0,0E0,0E0,0E0],"parents":[2147483647,0,0,1,1,2,2],"right_children":[2,4,6,-1,-1,-1,-1],"split_conditions":[1.0392049E1,1.5787205E8,-4.6212185E1,-3.567264E-2,-9.23633E-3,2.7146045E-2,9.603686E-3],"split_indices":[4,0,99,0,0,0,0],"split_type":[0,0,0,0,0,0,0],"sum_hessian":[1E1,4E0,6E0,2E0,2E0,3E0,3E0],"tree_param":{"num_deleted":"0","num_feature":"140","num_nodes":"7","size_leaf_vector":"1"}},{"base_weights":[-4.6477903E-2,-4.5852438E-1,4.419893E-1,-1.1406577E-2,-3.448355E-2,5.7448745E-3,2.422141E-2],"categories":[],"categories_nodes":[],"categories_segments":[],"categories_sizes":[],"default_left":[0,0,0,0,0,0,0],"id":28,"left_children":[1,3,5,-1,-1,-1,-1],"loss_changes":[2.617917E0,2.1544588E-1,2.7628899E-2,0E0,0E0,0E0,0E0],"parents":[2147483647,0,0,1,1,2,2],"right_children":[2,4,6,-1,-1,-1,-1],"split_conditions":[2.266736E0,1.01220266E5,6.79292E8,-1.1406577E-2,-3.448355E-2,5.7448745E-3,2.422141E-2],"split_indices":[104,9,10,0,0,0,0],"split_type":[0,0,0,0,0,0,0],"sum_hessian":[1.1E1,6E0,5E0,4E0,2E0,1E0,4E0],"tree_param":{"num_deleted":"0","num_feature":"140","num_nodes":"7","size_leaf_vector":"1"}},{"base_weights":[4.9137365E-2,-3.5220474E-1,3.8612527E-1,-2.1457883E-2,-6.6099647E-3,2.5219763E-2,8.566198E-3],"categories":[],"categories_nodes":[],"categories_segments":[],"categories_sizes":[],"default_left":[0,0,0,0,0,0,0],"id":29,"left_children":[1,3,5,-1,-1,-1,-1],"loss_changes":[1.7589643E0,4.4846E-2,9.1416836E-2,0E0,0E0,0E0,0E0],"parents":[2147483647,0,0,1,1,2,2],"right_children":[2,4,6,-1,-1,-1,-1],"split_conditions":[2.266736E0,1.5817096E8,-4.6212185E1,-2.1457883E-2,-6.6099647E-3,2.5219763E-2,8.566198E-3],"split_indices":[104,0,99,0,0,0,0],"split_type":[0,0,0,0,0,0,0],"sum_hessian":[1.1E1,5E0,6E0,3E0,2E0,3E0,3E0],"tree_param":{"num_deleted":"0","num_feature":"140","num_nodes":"7","size_leaf_vector":"1"}},{"base_weights":[-5.78012E-2,-4.2800367E-1,3.837352E-1,-1.0388956E-2,-3.2618836E-2,2.4274025E-2,6.008156E-3],"categories":[],"categories_nodes":[],"categories_segments":[],"categories_sizes":[],"default_left":[0,0,0,0,0,0,0],"id":30,"left_children":[1,3,5,-1,-1,-1,-1],"loss_changes":[2.1257346E0,2.1033692E-1,1.0256648E-1,0E0,0E0,0E0,0E0],"parents":[2147483647,0,0,1,1,2,2],"right_children":[2,4,6,-1,-1,-1,-1],"split_conditions":[1.6686554E8,1.01220266E5,2.851669E3,-1.0388956E-2,-3.2618836E-2,2.4274025E-2,6.008156E-3],"split_indices":[0,9,64,0,0,0,0],"split_type":[0,0,0,0,0,0,0],"sum_hessian":[1.1E1,6E0,5E0,4E0,2E0,3E0,2E0],"tree_param":{"num_deleted":"0","num_feature":"140","num_nodes":"7","size_leaf_vector":"1"}},{"base_weights":[-1.4958125E-1,-4.1274747E-1,2.487677E-1,-9.973399E-3,-3.153154E-2,1.3810515E-2,3.4749329E-3],"categories":[],"categories_nodes":[],"categories_segments":[],"categories_sizes":[],"default_left":[0,0,0,0,0,0,0],"id":31,"left_children":[1,3,5,-1,-1,-1,-1],"loss_changes":[1.2558302E0,1.9949973E-1,5.40182E-3,0E0,0E0,0E0,0E0],"parents":[2147483647,0,0,1,1,2,2],"right_children":[2,4,6,-1,-1,-1,-1],"split_conditions":[2.266736E0,1.01220266E5,1.8074046E8,-9.973399E-3,-3.153154E-2,1.3810515E-2,3.4749329E-3],"split_indices":[104,9,0,0,0,0,0],"split_type":[0,0,0,0,0,0,0],"sum_hessian":[1E1,6E0,4E0,4E0,2E0,3E0,1E0],"tree_param":{"num_deleted":"0","num_feature":"140","num_nodes":"7","size_leaf_vector":"1"}},{"base_weights":[-3.7215423E-2,-3.9803943E-1,3.899485E-1,-9.574465E-3,-3.048049E-2,4.891634E-3,2.1440256E-2],"categories":[],"categories_nodes":[],"categories_segments":[],"categories_sizes":[],"default_left":[0,0,0,0,0,0,0],"id":32,"left_children":[1,3,5,-1,-1,-1,-1],"loss_changes":[2.0047867E0,1.8916547E-1,2.615261E-2,0E0,0E0,0E0,0E0],"parents":[2147483647,0,0,1,1,2,2],"right_children":[2,4,6,-1,-1,-1,-1],"split_conditions":[2.266736E0,1.01220266E5,6.79292E8,-9.574465E-3,-3.048049E-2,4.891634E-3,2.1440256E-2],"split_indices":[104,9,10,0,0,0,0],"split_type":[0,0,0,0,0,0,0],"sum_hessian":[1.1E1,6E0,5E0,4E0,2E0,1E0,4E0],"tree_param":{"num_deleted":"0","num_feature":"140","num_nodes":"7","size_leaf_vector":"1"}},{"base_weights":[-2.4915155E-2,-3.838596E-1,3.375886E-1,-9.19149E-3,-2.9464474E-2,2.2300232E-2,7.2387727E-3],"categories":[],"categories_nodes":[],"categories_segments":[],"categories_sizes":[],"default_left":[0,0,0,0,0,0,0],"id":33,"left_children":[1,3,5,-1,-1,-1,-1],"loss_changes":[1.82113E0,1.7931569E-1,8.1757724E-2,0E0,0E0,0E0,0E0],"parents":[2147483647,0,0,1,1,2,2],"right_children":[2,4,6,-1,-1,-1,-1],"split_conditions":[2.266736E0,1.01220266E5,-4.6212185E1,-9.19149E-3,-2.9464474E-2,2.2300232E-2,7.2387727E-3],"split_indices":[104,9,99,0,0,0,0],"split_type":[0,0,0,0,0,0,0],"sum_hessian":[1.2E1,6E0,6E0,4E0,2E0,3E0,3E0],"tree_param":{"num_deleted":"0","num_feature":"140","num_nodes":"7","size_leaf_vector":"1"}},{"base_weights":[-6.5774545E-2,-4.7513434E-1,2.748682E-1,-2.8482324E-2,-4.7899485E-3,4.839635E-3,1.8066049E-2],"categories":[],"categories_nodes":[],"categories_segments":[],"categories_sizes":[],"default_left":[0,0,0,0,0,0,0],"id":34,"left_children":[1,3,5,-1,-1,-1,-1],"loss_changes":[1.2461629E0,8.8835716E-2,4.200238E-2,0E0,0E0,0E0,0E0],"parents":[2147483647,0,0,1,1,2,2],"right_children":[2,4,6,-1,-1,-1,-1],"split_conditions":[1.608722E8,1.5787205E8,2.8462725E1,-2.8482324E-2,-4.7899485E-3,4.839635E-3,1.8066049E-2],"split_indices":[0,0,4,0,0,0,0],"split_type":[0,0,0,0,0,0,0],"sum_hessian":[7E0,3E0,4E0,2E0,1E0,2E0,2E0],"tree_param":{"num_deleted":"0","num_feature":"140","num_nodes":"7","size_leaf_vector":"1"}},{"base_weights":[-5.1453054E-2,-4.391927E-1,2.8023884E-1,-9.066478E-3,-2.7532915E-2,1.7509177E-2,4.678313E-3],"categories":[],"categories_nodes":[],"categories_segments":[],"categories_sizes":[],"default_left":[0,0,0,0,0,0,0],"id":35,"left_children":[1,3,5,-1,-1,-1,-1],"loss_changes":[1.4091798E0,4.3863714E-2,4.557517E-2,0E0,0E0,0E0,0E0],"parents":[2147483647,0,0,1,1,2,2],"right_children":[2,4,6,-1,-1,-1,-1],"split_conditions":[1.5817096E8,1.01220266E5,1.0125382E5,-9.066478E-3,-2.7532915E-2,1.7509177E-2,4.678313E-3],"split_indices":[0,9,1,0,0,0,0],"split_type":[0,0,0,0,0,0,0],"sum_hessian":[9E0,4E0,5E0,2E0,2E0,3E0,2E0],"tree_param":{"num_deleted":"0","num_feature":"140","num_nodes":"7","size_leaf_vector":"1"}},{"base_weights":[-7.3641405E-2,-3.764396E-1,3.044447E-1,-8.271608E-3,-2.6615148E-2,1.6852582E-2,4.350424E-3],"categories":[],"categories_nodes":[],"categories_segments":[],"categories_sizes":[],"default_left":[0,0,0,0,0,0,0],"id":36,"left_children":[1,3,5,-1,-1,-1,-1],"loss_changes":[1.2594429E0,1.0926998E-1,6.1233044E-3,0E0,0E0,0E0,0E0],"parents":[2147483647,0,0,1,1,2,2],"right_children":[2,4,6,-1,-1,-1,-1],"split_conditions":[1.7389E4,1.01220266E5,1.0125382E5,-8.271608E-3,-2.6615148E-2,1.6852582E-2,4.350424E-3],"split_indices":[58,9,1,0,0,0,0],"split_type":[0,0,0,0,0,0,0],"sum_hessian":[9E0,5E0,4E0,3E0,2E0,3E0,1E0],"tree_param":{"num_deleted":"0","num_feature":"140","num_nodes":"7","size_leaf_vector":"1"}},{"base_weights":[-6.2336847E-2,-3.6343208E-1,2.4914785E-1,-7.961422E-3,-2.5727978E-2,4.377357E-3,1.5403071E-2],"categories":[],"categories_nodes":[],"categories_segments":[],"categories_sizes":[],"default_left":[0,0,0,0,0,0,0],"id":37,"left_children":[1,3,5,-1,-1,-1,-1],"loss_changes":[1.1222004E0,1.03232145E-1,3.0152917E-2,0E0,0E0,0E0,0E0],"parents":[2147483647,0,0,1,1,2,2],"right_children":[2,4,6,-1,-1,-1,-1],"split_conditions":[1.7389E4,1.01220266E5,9.458E3,-7.961422E-3,-2.5727978E-2,4.377357E-3,1.5403071E-2],"split_indices":[58,9,57,0,0,0,0],"split_type":[0,0,0,0,0,0,0],"sum_hessian":[1E1,5E0,5E0,3E0,2E0,2E0,3E0],"tree_param":{"num_deleted":"0","num_feature":"140","num_nodes":"7","size_leaf_vector":"1"}},{"base_weights":[-5.0789174E-2,-3.4583881E-1,2.5272533E-1,-2.4870379E-2,-7.285127E-3,1.7501045E-2,5.828616E-3],"categories":[],"categories_nodes":[],"categories_segments":[],"categories_sizes":[],"default_left":[0,0,0,0,0,0,0],"id":38,"left_children":[1,3,5,-1,-1,-1,-1],"loss_changes":[1.0724725E0,1.0953289E-1,3.867975E-2,0E0,0E0,0E0,0E0],"parents":[2147483647,0,0,1,1,2,2],"right_children":[2,4,6,-1,-1,-1,-1],"split_conditions":[2.266736E0,1.5787205E8,2.7391E4,-2.4870379E-2,-7.285127E-3,1.7501045E-2,5.828616E-3],"split_indices":[104,0,68,0,0,0,0],"split_type":[0,0,0,0,0,0,0],"sum_hessian":[1E1,5E0,5E0,2E0,3E0,2E0,3E0],"tree_param":{"num_deleted":"0","num_feature":"140","num_nodes":"7","size_leaf_vector":"1"}},{"base_weights":[2.1360207E-2,-2.5005236E-1,2.4397731E-1,-6.385583E-3,-1.848538E-2,1.6917674E-2,5.6100427E-3],"categories":[],"categories_nodes":[],"categories_segments":[],"categories_sizes":[],"default_left":[0,0,0,0,0,0,0],"id":39,"left_children":[1,3,5,-1,-1,-1,-1],"loss_changes":[6.6521794E-1,2.5977552E-2,3.6655784E-2,0E0,0E0,0E0,0E0],"parents":[2147483647,0,0,1,1,2,2],"right_children":[2,4,6,-1,-1,-1,-1],"split_conditions":[2.266736E0,1.01263984E5,2.7391E4,-6.385583E-3,-1.848538E-2,1.6917674E-2,5.6100427E-3],"split_indices":[104,1,68,0,0,0,0],"split_type":[0,0,0,0,0,0,0],"sum_hessian":[9E0,4E0,5E0,3E0,1E0,2E0,3E0],"tree_param":{"num_deleted":"0","num_feature":"140","num_nodes":"7","size_leaf_vector":"1"}},{"base_weights":[-2.2363635E-2,-3.266572E-1,2.856572E-1,-6.779154E-3,-2.3626849E-2,1.8536672E-2,3.850158E-3],"categories":[],"categories_nodes":[],"categories_segments":[],"categories_sizes":[],"default_left":[0,0,0,0,0,0,0],"id":40,"left_children":[1,3,5,-1,-1,-1,-1],"loss_changes":[1.1243283E0,1.0317516E-1,7.7961415E-2,0E0,0E0,0E0,0E0],"parents":[2147483647,0,0,1,1,2,2],"right_children":[2,4,6,-1,-1,-1,-1],"split_conditions":[1.6686554E8,1.01220266E5,2.851669E3,-6.779154E-3,-2.3626849E-2,1.8536672E-2,3.850158E-3],"split_indices":[0,9,64,0,0,0,0],"split_type":[0,0,0,0,0,0,0],"sum_hessian":[1E1,5E0,5E0,3E0,2E0,3E0,2E0],"tree_param":{"num_deleted":"0","num_feature":"140","num_nodes":"7","size_leaf_vector":"1"}},{"base_weights":[-7.487902E-2,-2.960166E-1,2.4968939E-1,-7.01759E-3,-2.2839287E-2,3.7500083E-3,1.3730583E-2],"categories":[],"categories_nodes":[],"categories_segments":[],"categories_sizes":[],"default_left":[0,0,0,0,0,0,0],"id":41,"left_children":[1,3,5,-1,-1,-1,-1],"loss_changes":[8.634292E-1,1.11072004E-1,1.172334E-3,0E0,0E0,0E0,0E0],"parents":[2147483647,0,0,1,1,2,2],"right_children":[2,4,6,-1,-1,-1,-1],"split_conditions":[2.266736E0,1.01220266E5,6.79292E8,-7.01759E-3,-2.2839287E-2,3.7500083E-3,1.3730583E-2],"split_indices":[104,9,10,0,0,0,0],"split_type":[0,0,0,0,0,0,0],"sum_hessian":[1E1,6E0,4E0,4E0,2E0,1E0,3E0],"tree_param":{"num_deleted":"0","num_feature":"140","num_nodes":"7","size_leaf_vector":"1"}},{"base_weights":[-4.042824E-2,-3.4416285E-1,2.1942198E-1,-2.2077976E-2,-6.602261E-3,1.3883794E-2,3.4304739E-3],"categories":[],"categories_nodes":[],"categories_segments":[],"categories_sizes":[],"default_left":[0,0,0,0,0,0,0],"id":42,"left_children":[1,3,5,-1,-1,-1,-1],"loss_changes":[8.6477196E-1,4.499191E-2,3.3661306E-2,0E0,0E0,0E0,0E0],"parents":[2147483647,0,0,1,1,2,2],"right_children":[2,4,6,-1,-1,-1,-1],"split_conditions":[1.608722E8,1.5787205E8,1.0125382E5,-2.2077976E-2,-6.602261E-3,1.3883794E-2,3.4304739E-3],"split_indices":[0,0,1,0,0,0,0],"split_type":[0,0,0,0,0,0,0],"sum_hessian":[9E0,4E0,5E0,2E0,2E0,3E0,2E0],"tree_param":{"num_deleted":"0","num_feature":"140","num_nodes":"7","size_leaf_vector":"1"}},{"base_weights":[-6.7877725E-2,-2.9444468E-1,2.1757817E-1,-6.076819E-3,-2.1342045E-2,1.4815385E-2,3.3161284E-3],"categories":[],"categories_nodes":[],"categories_segments":[],"categories_sizes":[],"default_left":[0,0,0,0,0,0,0],"id":43,"left_children":[1,3,5,-1,-1,-1,-1],"loss_changes":[7.108135E-1,8.547771E-2,3.988956E-2,0E0,0E0,0E0,0E0],"parents":[2147483647,0,0,1,1,2,2],"right_children":[2,4,6,-1,-1,-1,-1],"split_conditions":[1.6686554E8,1.01220266E5,1.0125382E5,-6.076819E-3,-2.1342045E-2,1.4815385E-2,3.3161284E-3],"split_indices":[0,9,1,0,0,0,0],"split_type":[0,0,0,0,0,0,0],"sum_hessian":[9E0,5E0,4E0,3E0,2E0,2E0,2E0],"tree_param":{"num_deleted":"0","num_feature":"140","num_nodes":"7","size_leaf_vector":"1"}},{"base_weights":[4.367714E-2,-2.1551032E-1,2.5238717E-1,-1.3625081E-2,-4.334112E-3,1.6524846E-2,3.2055897E-3],"categories":[],"categories_nodes":[],"categories_segments":[],"categories_sizes":[],"default_left":[0,0,0,0,0,0,0],"id":44,"left_children":[1,3,5,-1,-1,-1,-1],"loss_changes":[5.953422E-1,1.3089359E-2,6.70481E-2,0E0,0E0,0E0,0E0],"parents":[2147483647,0,0,1,1,2,2],"right_children":[2,4,6,-1,-1,-1,-1],"split_conditions":[1.6686554E8,1.5817096E8,2.851669E3,-1.3625081E-2,-4.334112E-3,1.6524846E-2,3.2055897E-3],"split_indices":[0,0,64,0,0,0,0],"split_type":[0,0,0,0,0,0,0],"sum_hessian":[9E0,4E0,5E0,2E0,2E0,3E0,2E0],"tree_param":{"num_deleted":"0","num_feature":"140","num_nodes":"7","size_leaf_vector":"1"}},{"base_weights":[-1.7143786E-2,-2.7448654E-1,2.4305625E-1,-5.454135E-3,-2.0176474E-2,1.5905166E-2,3.0987381E-3],"categories":[],"categories_nodes":[],"categories_segments":[],"categories_sizes":[],"default_left":[0,0,0,0,0,0,0],"id":45,"left_children":[1,3,5,-1,-1,-1,-1],"loss_changes":[8.032822E-1,8.404714E-2,6.1823428E-2,0E0,0E0,0E0,0E0],"parents":[2147483647,0,0,1,1,2,2],"right_children":[2,4,6,-1,-1,-1,-1],"split_conditions":[1.6686554E8,1.01220266E5,2.851669E3,-5.454135E-3,-2.0176474E-2,1.5905166E-2,3.0987381E-3],"split_indices":[0,9,64,0,0,0,0],"split_type":[0,0,0,0,0,0,0],"sum_hessian":[1E1,5E0,5E0,3E0,2E0,3E0,2E0],"tree_param":{"num_deleted":"0","num_feature":"140","num_nodes":"7","size_leaf_vector":"1"}},{"base_weights":[-1.6908158E-2,-1.9054018E-1,1.948319E-1,-1.2743736E-2,-4.7327117E-3,1.3240545E-2,2.9954473E-3],"categories":[],"categories_nodes":[],"categories_segments":[],"categories_sizes":[],"default_left":[0,0,0,0,0,0,0],"id":46,"left_children":[1,3,5,-1,-1,-1,-1],"loss_changes":[4.0477183E-1,1.2887701E-2,3.1344324E-2,0E0,0E0,0E0,0E0],"parents":[2147483647,0,0,1,1,2,2],"right_children":[2,4,6,-1,-1,-1,-1],"split_conditions":[1.6686554E8,9.01159E0,1.0125382E5,-1.2743736E-2,-4.7327117E-3,1.3240545E-2,2.9954473E-3],"split_indices":[0,4,1,0,0,0,0],"split_type":[0,0,0,0,0,0,0],"sum_hessian":[9E0,5E0,4E0,2E0,3E0,2E0,2E0],"tree_param":{"num_deleted":"0","num_feature":"140","num_nodes":"7","size_leaf_vector":"1"}},{"base_weights":[5.0430447E-3,-2.5152785E-1,2.2424051E-1,-1.9079134E-2,-4.5552375E-3,1.3959477E-2,2.8955976E-3],"categories":[],"categories_nodes":[],"categories_segments":[],"categories_sizes":[],"default_left":[0,0,0,0,0,0,0],"id":47,"left_children":[1,3,5,-1,-1,-1,-1],"loss_changes":[7.31279E-1,9.0418786E-2,4.7808707E-2,0E0,0E0,0E0,0E0],"parents":[2147483647,0,0,1,1,2,2],"right_children":[2,4,6,-1,-1,-1,-1],"split_conditions":[2.266736E0,9.01159E0,2.851669E3,-1.9079134E-2,-4.5552375E-3,1.3959477E-2,2.8955976E-3],"split_indices":[104,4,64,0,0,0,0],"split_type":[0,0,0,0,0,0,0],"sum_hessian":[1.1E1,5E0,6E0,2E0,3E0,4E0,2E0],"tree_param":{"num_deleted":"0","num_feature":"140","num_nodes":"7","size_leaf_vector":"1"}},{"base_weights":[-2.2606416E-4,-1.7933007E-1,1.7891562E-1,-5.1056123E-3,-1.413548E-2,2.799078E-3,1.13193635E-2],"categories":[],"categories_nodes":[],"categories_segments":[],"categories_sizes":[],"default_left":[0,0,0,0,0,0,0],"id":48,"left_children":[1,3,5,-1,-1,-1,-1],"loss_changes":[3.850199E-1,1.9028336E-2,2.2341758E-2,0E0,0E0,0E0,0E0],"parents":[2147483647,0,0,1,1,2,2],"right_children":[2,4,6,-1,-1,-1,-1],"split_conditions":[2.266736E0,1.01220266E5,9.458E3,-5.1056123E-3,-1.413548E-2,2.799078E-3,1.13193635E-2],"split_indices":[104,9,57,0,0,0,0],"split_type":[0,0,0,0,0,0,0],"sum_hessian":[1E1,5E0,5E0,4E0,1E0,2E0,3E0],"tree_param":{"num_deleted":"0","num_feature":"140","num_nodes":"7","size_leaf_vector":"1"}},{"base_weights":[-3.623949E-2,-2.3876198E-1,1.7232291E-1,-4.428163E-3,-1.797198E-2,9.961002E-3,9.459317E-4],"categories":[],"categories_nodes":[],"categories_segments":[],"categories_sizes":[],"default_left":[0,0,0,0,0,0,0],"id":49,"left_children":[1,3,5,-1,-1,-1,-1],"loss_changes":[5.057685E-1,7.692057E-2,2.0987824E-2,0E0,0E0,0E0,0E0],"parents":[2147483647,0,0,1,1,2,2],"right_children":[2,4,6,-1,-1,-1,-1],"split_conditions":[1.7389E4,1.01220266E5,1.0136831E5,-4.428163E-3,-1.797198E-2,9.961002E-3,9.459317E-4],"split_indices":[58,9,1,0,0,0,0],"split_type":[0,0,0,0,0,0,0],"sum_hessian":[1E1,5E0,5E0,3E0,2E0,4E0,1E0],"tree_param":{"num_deleted":"0","num_feature":"140","num_nodes":"7","size_leaf_vector":"1"}}]},"name":"gbtree"},"learner_model_param":{"base_score":"[2.25E0]","boost_from_average":"1","num_class":"0","num_feature":"140","num_target":"1"},"objective":{"name":"reg:squarederror","reg_loss_param":{"scale_pos_weight":"1"}}},"version":[3,2,0]}